    0.479824008566105409E+00   -0.128426110842571486E+02    0.555608408887145799E+01    0.175169744763802191E+04
    0.567671655271475117E+00   -0.133549703447145767E+02    0.588134141885993778E+01    0.175243956276625886E+04
    0.541111054887701837E+00   -0.131580964920299106E+02    0.298745598553449465E+01    0.175282307827774343E+04
    0.507887910488029837E+00   -0.136373630346629398E+02    0.525393874892096679E+01    0.175328859125219674E+04
    0.443460147338096577E+00   -0.135666335118723644E+02    0.479114644213430374E+01    0.175336347716004047E+04
    0.536931119628842879E+00   -0.131767296697207854E+02    0.309255839439350932E+01    0.175341458326751035E+04
    0.490999097219604108E+00   -0.134387517903006284E+02    0.397644679905321086E+01    0.175373010160063154E+04
    0.562635133901797202E+00   -0.132975334624839157E+02    0.476331491450298650E+01    0.175384814931010169E+04
    0.523048756082514776E+00   -0.135982008151431994E+02    0.532375642386412995E+01    0.175397701875014241E+04
    0.464657386315941556E+00   -0.130875576051167126E+02    0.260812653341576350E+01    0.175414125623814766E+04
    0.520269158670607634E+00   -0.129361270932210122E+02    0.348573179875934747E+01    0.175438503987377226E+04
    0.455487367084107531E+00   -0.130270043160688331E+02    0.569013155563394246E+01    0.175453301985700068E+04
    0.552845630189174653E+00   -0.132780612205774364E+02    0.493975814914808087E+01    0.175458052167727146E+04
    0.450983330591482989E+00   -0.129512649471955790E+02    0.518179607135449416E+01    0.175459701675406473E+04
    0.503075847440798807E+00   -0.137159688008267562E+02    0.672457311734901175E+01    0.175470745354094629E+04
    0.461504076953436870E+00   -0.135111265004181114E+02    0.457918164026846597E+01    0.175472269543553512E+04
    0.413103602373678713E+00   -0.134398279446127624E+02    0.475305854975494491E+01    0.175478302744703501E+04
    0.410224068499724481E+00   -0.134220273503556555E+02    0.473353039419941979E+01    0.175482851416456856E+04
    0.444052176652486530E+00   -0.130946800045915683E+02    0.276664020254552590E+01    0.175486654124561437E+04
    0.510534925140895046E+00   -0.136636432499344291E+02    0.659666023093361531E+01    0.175506163451651992E+04
    0.512707123850277169E+00   -0.131581745534350176E+02    0.567787275482385034E+01    0.175510364379651082E+04
    0.433480116873380172E+00   -0.133438645784536600E+02    0.379745551363243505E+01    0.175515083527039565E+04
    0.540851424968274763E+00   -0.134087576693899013E+02    0.546139424389336892E+01    0.175518057023160691E+04
    0.470961416558781210E+00   -0.136973870026457760E+02    0.656808750790361273E+01    0.175526371777619829E+04
    0.511418041959228908E+00   -0.130232520721285070E+02    0.482514705976982761E+01    0.175531369894745740E+04
    0.523472718631853517E+00   -0.134265704517388702E+02    0.631096015719997805E+01    0.175533664586374812E+04
    0.426521109331869708E+00   -0.135407287251145299E+02    0.587964687962645183E+01    0.175536939831521613E+04
    0.399193076382792889E+00   -0.131238417484291237E+02    0.358647149550239019E+01    0.175540381400587626E+04
    0.475406637381111885E+00   -0.132309026253542807E+02    0.625774191759655185E+01    0.175549216468255486E+04
    0.519252303299528872E+00   -0.129933375003776295E+02    0.395482802117719778E+01    0.175549656584396439E+04
    0.451673472630352180E+00   -0.136521062590487006E+02    0.675272644386459930E+01    0.175550514328765803E+04
    0.396664884184545485E+00   -0.131315631019794221E+02    0.402758343613728265E+01    0.175551142084558455E+04
    0.518509668852343175E+00   -0.134046763602750829E+02    0.436459550386366857E+01    0.175554126408079128E+04
    0.430384586530679236E+00   -0.132666022463323365E+02    0.592452380398463418E+01    0.175556659384334671E+04
    0.464572088468371280E+00   -0.129104260337809258E+02    0.408593664460778605E+01    0.175559270243975061E+04
    0.399458632247104317E+00   -0.132188670722369181E+02    0.447992283545087222E+01    0.175559271017937590E+04
    0.415496605533534513E+00   -0.132666587836155951E+02    0.543134648143456822E+01    0.175565920902608468E+04
    0.505138122279952695E+00   -0.135030870338767155E+02    0.491691729165945990E+01    0.175571158534510460E+04
    0.466512067137101916E+00   -0.134590446302188891E+02    0.694856829291595357E+01    0.175572469407902054E+04
    0.507739130327190979E+00   -0.133316128218420999E+02    0.621120854034805525E+01    0.175572713528854888E+04
    0.466213193743790999E+00   -0.132328981453642847E+02    0.616473827344180147E+01    0.175573783130111815E+04
    0.514597816226236571E+00   -0.135263646023315349E+02    0.643603892104206743E+01    0.175574399549117379E+04
    0.437490908536251277E+00   -0.134104118685849389E+02    0.432067880064486154E+01    0.175575740495844752E+04
    0.524707045035516462E+00   -0.134947363239395557E+02    0.562423250271620123E+01    0.175577915547904104E+04
    0.485507062487768870E+00   -0.130100139582316068E+02    0.296987366905122885E+01    0.175577916342031131E+04
    0.492988198075966944E+00   -0.133750494441021086E+02    0.400205107121911929E+01    0.175579632389810672E+04
    0.413008196850890519E+00   -0.133728548310270661E+02    0.494623442920728618E+01    0.175581305138716607E+04
    0.431683420560859732E+00   -0.134829019789946809E+02    0.620393479524835367E+01    0.175581403506116089E+04
    0.530913016431026064E+00   -0.133950043666826897E+02    0.550227196034462018E+01    0.175582090908260716E+04
    0.415819794585156277E+00   -0.132140146675940855E+02    0.524305911737266417E+01    0.175582379131004677E+04
    0.485734530708500145E+00   -0.131573802748982569E+02    0.575112249781057994E+01    0.175583009884775515E+04
    0.500342401868934417E+00   -0.129591500207322721E+02    0.374918536091262267E+01    0.175587282422011162E+04
    0.450907639526648918E+00   -0.135890118237106883E+02    0.673509682462619264E+01    0.175587768376398776E+04
    0.533488190145017027E+00   -0.132793884950536842E+02    0.418479116664314965E+01    0.175589048372055163E+04
    0.442277689025996734E+00   -0.130261428039953682E+02    0.500750849413305321E+01    0.175590321450546298E+04
    0.455811721625511090E+00   -0.134149779777262843E+02    0.663038876680443945E+01    0.175593483166636156E+04
    0.429548561673983809E+00   -0.132956115177827847E+02    0.580603181213927932E+01    0.175593986561508063E+04
    0.448577354074702894E+00   -0.130777942083746055E+02    0.533330832921394915E+01    0.175594466399865632E+04
    0.425705394106649759E+00   -0.134332916458693585E+02    0.580737778921597059E+01    0.175595466599434849E+04
    0.521553957397542511E+00   -0.133730721049013681E+02    0.582248742228691807E+01    0.175597372096888535E+04
    0.510038383770085257E+00   -0.135286096343440256E+02    0.635919681544428617E+01    0.175600143566674706E+04
    0.490443617867741377E+00   -0.136084713252069669E+02    0.597785882170725191E+01    0.175600178421520422E+04
    0.434443488836125713E+00   -0.134715727380304386E+02    0.617863563344306144E+01    0.175600274752147334E+04
    0.434443488836125713E+00   -0.134715727380304386E+02    0.617863563344306144E+01    0.175600274752147334E+04
    0.515053225856808128E+00   -0.135192256151683772E+02    0.608221164458376240E+01    0.175601192187093193E+04
    0.489808537712081993E+00   -0.133207692053922564E+02    0.374778730911830094E+01    0.175603777963093648E+04
    0.433363542752577935E+00   -0.134607341612617368E+02    0.608663997425779701E+01    0.175606065361588117E+04
    0.472689127229814376E+00   -0.136225557647908353E+02    0.672966691658722915E+01    0.175607766700310458E+04
    0.467149307341778952E+00   -0.133513466403458985E+02    0.386952359933312584E+01    0.175608021976255804E+04
    0.445987217163290373E+00   -0.134226824216131106E+02    0.441359232556738146E+01    0.175609779332239532E+04
    0.479242389241264499E+00   -0.131151773081180245E+02    0.547808098135436072E+01    0.175611997509453977E+04
    0.404346824919314951E+00   -0.131507258680955310E+02    0.426991486817936483E+01    0.175612067429666308E+04
    0.437888312672457980E+00   -0.135088486456059336E+02    0.613809704081663998E+01    0.175612464416630155E+04
    0.408784244711186240E+00   -0.131716066571613606E+02    0.365436400595617883E+01    0.175612494153749435E+04
    0.456513781441261646E+00   -0.135319869882286330E+02    0.521092803307611785E+01    0.175613660073558003E+04
    0.463682957947910035E+00   -0.135590786672347683E+02    0.541864523155016542E+01    0.175614388017011197E+04
    0.509347262735931672E+00   -0.130202675705534823E+02    0.343795882789579377E+01    0.175614931291161270E+04
    0.524792849947144147E+00   -0.133348092203461377E+02    0.434707220209752254E+01    0.175618173799579108E+04
    0.482201452320317525E+00   -0.133534970429708935E+02    0.637612673142318087E+01    0.175619816003164510E+04
    0.478131297368075803E+00   -0.130481744539817299E+02    0.507579774341191214E+01    0.175623400884670377E+04
    0.478131297368075803E+00   -0.130481744539817299E+02    0.507579774341191214E+01    0.175623400884670377E+04
    0.450620911870841745E+00   -0.130074018397900346E+02    0.477736197117863526E+01    0.175628352665040438E+04
    0.450620911870841745E+00   -0.130074018397900346E+02    0.477736197117863526E+01    0.175628352665040438E+04
    0.512825700810846774E+00   -0.134883347675709011E+02    0.595232504288528474E+01    0.175629066173222395E+04
    0.470300284603544450E+00   -0.132851655323258893E+02    0.612158902714441222E+01    0.175629715948862395E+04
    0.498657604984905412E+00   -0.129945451567307284E+02    0.423121355538334676E+01    0.175629762819694133E+04
    0.480986272941910320E+00   -0.133925245419924988E+02    0.417363537640469850E+01    0.175629765681615550E+04
    0.531030067643580184E+00   -0.132397377589113479E+02    0.431071088063750629E+01    0.175632175036002855E+04
    0.434119964716960904E+00   -0.132712277692322544E+02    0.367276176186503500E+01    0.175636487760640648E+04
    0.514327142857372355E+00   -0.131331575349203735E+02    0.486997222683992081E+01    0.175636742821663734E+04
    0.492409029696721623E+00   -0.135744759986674346E+02    0.614227980598428491E+01    0.175639962939760358E+04
    0.432944165404302916E+00   -0.134500350448692814E+02    0.511877951394584940E+01    0.175640377251567224E+04
    0.431360746872734291E+00   -0.134473935170937597E+02    0.555880562808406076E+01    0.175640638680690222E+04
    0.433293284381871313E+00   -0.134072924930748680E+02    0.579747336012213754E+01    0.175642722111154239E+04
    0.433293284381871313E+00   -0.134072924930748680E+02    0.579747336012213754E+01    0.175642722111154239E+04
    0.479061176726468974E+00   -0.134000909344208434E+02    0.425449813946009314E+01    0.175644182474355625E+04
    0.436766050944874751E+00   -0.129873275184259818E+02    0.349566023792812164E+01    0.175645634267984974E+04
    0.413929728895403581E+00   -0.131505780622461632E+02    0.461979423245323240E+01    0.175646080665514819E+04
    0.420508851698801367E+00   -0.133521176395367256E+02    0.501658912733248918E+01    0.175647311268507406E+04
    0.474469101878926214E+00   -0.132717079455134552E+02    0.598761395978394528E+01    0.175647555489407819E+04
    0.474469101878926214E+00   -0.132717079455134552E+02    0.598761395978394528E+01    0.175647555489407819E+04
    0.523190464912208331E+00   -0.132349683456775633E+02    0.394704371447728386E+01    0.175647592669264804E+04
    0.446826587817785281E+00   -0.133129744265668339E+02    0.594711290323185526E+01    0.175647629725610773E+04
    0.493619013133084428E+00   -0.135620147169911398E+02    0.607286084187850150E+01    0.175647638261121756E+04
    0.460778174219908632E+00   -0.135650587211758218E+02    0.588284539199380241E+01    0.175649154576394744E+04
    0.460778174219908632E+00   -0.135650587211758218E+02    0.588284539199380241E+01    0.175649154576394744E+04
    0.438840253718609574E+00   -0.134753824516382039E+02    0.526868519068739172E+01    0.175649546659679481E+04
    0.472054243538846174E+00   -0.134886878701378272E+02    0.654426929720305850E+01    0.175653063112007794E+04
    0.472054243538846174E+00   -0.134886878701378272E+02    0.654426929720305850E+01    0.175653063112007794E+04
    0.527676312326923913E+00   -0.132221389047876219E+02    0.445194267838524027E+01    0.175654142263574249E+04
    0.454971028999773930E+00   -0.135201012709791062E+02    0.537629482931445946E+01    0.175655519730977312E+04
    0.471164381108562402E+00   -0.133908549793910261E+02    0.422340278203621899E+01    0.175657244299779472E+04
    0.471164381108562402E+00   -0.133908549793910261E+02    0.422340278203621899E+01    0.175657244299779472E+04
    0.521981041118858125E+00   -0.131305618507708957E+02    0.383845077548196523E+01    0.175659454031377459E+04
    0.445703915555694330E+00   -0.135076601205561744E+02    0.561868151983778574E+01    0.175659489111479934E+04
    0.445703915555694330E+00   -0.135076601205561744E+02    0.561868151983778574E+01    0.175659489111479934E+04
    0.422731565214839122E+00   -0.130297667863057463E+02    0.375304653329268323E+01    0.175661745557095514E+04
    0.413514307566294370E+00   -0.131059650756668198E+02    0.373193587406508076E+01    0.175662904762431276E+04
    0.495887949805797534E+00   -0.135274619914652732E+02    0.606115234953560034E+01    0.175664974565738248E+04
    0.515347984647659185E+00   -0.132789017498718884E+02    0.401387713883322483E+01    0.175665386839873963E+04
    0.516927390520594665E+00   -0.131577983284227074E+02    0.364733959120139772E+01    0.175666215734230786E+04
    0.507720519756015065E+00   -0.133788287174970186E+02    0.578168968793529636E+01    0.175667882061009027E+04
    0.507720519756015065E+00   -0.133788287174970186E+02    0.578168968793529636E+01    0.175667882061009027E+04
    0.441810402485592224E+00   -0.132748465262823139E+02    0.370394516836554377E+01    0.175668495286800680E+04
    0.441810402485592224E+00   -0.132748465262823139E+02    0.370394516836554377E+01    0.175668495286800680E+04
    0.450302051556916938E+00   -0.135165105055168446E+02    0.584218665245492641E+01    0.175668821318238383E+04
    0.511342393667837625E+00   -0.132551460733674933E+02    0.531397872249153735E+01    0.175669549250051887E+04
    0.483975402982735670E+00   -0.130826090694954882E+02    0.500088497292645240E+01    0.175669857323321162E+04
    0.494143241273099054E+00   -0.134536848834298368E+02    0.617531706739813124E+01    0.175673333537989379E+04
    0.467847183418891310E+00   -0.135315408697102857E+02    0.550462661458231395E+01    0.175673589559720199E+04
    0.524500338742544203E+00   -0.132423863073153356E+02    0.449074728813707402E+01    0.175673990888846879E+04
    0.464568121176930582E+00   -0.135455415028326573E+02    0.606891693263430643E+01    0.175674476416259449E+04
    0.473928430438961934E+00   -0.130519234825054085E+02    0.312319695383885021E+01    0.175674912951352871E+04
    0.473928430438961934E+00   -0.130519234825054085E+02    0.312319695383885021E+01    0.175674912951352871E+04
    0.457610272074112867E+00   -0.130515165395643074E+02    0.312770616622494213E+01    0.175678078669452316E+04
    0.488110669330225955E+00   -0.130814385217158602E+02    0.489851848394258216E+01    0.175678512971834721E+04
    0.491063616518228940E+00   -0.134872524755476988E+02    0.616418712692923698E+01    0.175680975957566875E+04
    0.491063616518228940E+00   -0.134872524755476988E+02    0.616418712692923698E+01    0.175680975957566875E+04
    0.485752531508811591E+00   -0.135119126074531994E+02    0.617555367523796139E+01    0.175683867140544953E+04
    0.485752531508811591E+00   -0.135119126074531994E+02    0.617555367523796139E+01    0.175683867140544953E+04
    0.505816240843146359E+00   -0.134123660237002955E+02    0.477117565376800101E+01    0.175683986636296754E+04
    0.469073193497950847E+00   -0.129949546301108345E+02    0.434266606645288000E+01    0.175684498353004483E+04
    0.463562591746164987E+00   -0.135326565001699386E+02    0.588502559816395987E+01    0.175684767301797933E+04
    0.463562591746164987E+00   -0.135326565001699386E+02    0.588502559816395987E+01    0.175684767301797933E+04
    0.506161374784640072E+00   -0.133867565743379551E+02    0.458712718995361968E+01    0.175686481702060860E+04
    0.506161374784640072E+00   -0.133867565743379551E+02    0.458712718995361968E+01    0.175686481702060860E+04
    0.436778333739947788E+00   -0.130171186863684749E+02    0.423961077324648361E+01    0.175686953727928585E+04
    0.491419484645051252E+00   -0.132092504808225559E+02    0.346851030200762933E+01    0.175687372844579863E+04
    0.507738065032884656E+00   -0.133731345161423931E+02    0.560714155433322858E+01    0.175687866164755178E+04
    0.489503103900492897E+00   -0.132705341541995345E+02    0.370853907995296472E+01    0.175688306241763462E+04
    0.463245096857518579E+00   -0.131905724554482049E+02    0.549114457997643335E+01    0.175688424794589650E+04
    0.463245096857518579E+00   -0.131905724554482049E+02    0.549114457997643335E+01    0.175688424794589650E+04
    0.483130859281750258E+00   -0.135256236971459387E+02    0.568540100158171580E+01    0.175690179048098003E+04
    0.432072183388226394E+00   -0.132037497273177138E+02    0.513146465603515978E+01    0.175690265403434364E+04
    0.453806009849507364E+00   -0.133516314059135315E+02    0.412826983505148881E+01    0.175691227981218890E+04
    0.427821588454804447E+00   -0.133214920133454715E+02    0.435019418479168873E+01    0.175692352217178632E+04
    0.427821588454804447E+00   -0.133214920133454715E+02    0.435019418479168873E+01    0.175692352217178632E+04
    0.425904728883668149E+00   -0.131077626192097441E+02    0.346566748864523566E+01    0.175694447597616795E+04
    0.441060690608692685E+00   -0.132718186106251181E+02    0.548063700644684371E+01    0.175695922264854539E+04
    0.441060690608692685E+00   -0.132718186106251181E+02    0.548063700644684371E+01    0.175695922264854539E+04
    0.463807677900931248E+00   -0.132124502875927838E+02    0.553566632253267876E+01    0.175696693805441441E+04
    0.463807677900931248E+00   -0.132124502875927838E+02    0.553566632253267876E+01    0.175696693805441441E+04
    0.453101928576800095E+00   -0.129914268939769268E+02    0.409868949533352733E+01    0.175697837372200502E+04
    0.464511405975406300E+00   -0.134803818881505411E+02    0.512505655467158139E+01    0.175698754193038667E+04
    0.431232168841814145E+00   -0.133688329105953141E+02    0.508850381014954145E+01    0.175699052984557966E+04
    0.442940923363902117E+00   -0.130005223511727106E+02    0.374405326946133510E+01    0.175699993103161796E+04
    0.442940923363902117E+00   -0.130005223511727106E+02    0.374405326946133510E+01    0.175699993103161796E+04
    0.513269766385476167E+00   -0.133598266146533184E+02    0.513973985539633116E+01    0.175701719177991072E+04
    0.470162167670135078E+00   -0.134325155797441429E+02    0.611315991761355892E+01    0.175703086711913534E+04
    0.470162167670135078E+00   -0.134325155797441429E+02    0.611315991761355892E+01    0.175703086711913534E+04
    0.477326426994824304E+00   -0.133526369824025615E+02    0.594924126633341643E+01    0.175703240563425766E+04
    0.488214910949119618E+00   -0.134395228703450336E+02    0.481632631424485425E+01    0.175703270569644860E+04
    0.490738466433414455E+00   -0.134954232836335262E+02    0.573004547742861714E+01    0.175703334077878480E+04
    0.461094829682504370E+00   -0.130551567685761825E+02    0.475156624478698930E+01    0.175704658261993154E+04
    0.461094829682504370E+00   -0.130551567685761825E+02    0.475156624478698930E+01    0.175704658261993154E+04
    0.490232030754892856E+00   -0.134848254206496669E+02    0.538944027843678519E+01    0.175706342062347539E+04
    0.490232030754892856E+00   -0.134848254206496669E+02    0.538944027843678519E+01    0.175706342062347539E+04
    0.435380408675482888E+00   -0.133854240205883492E+02    0.517887189586153251E+01    0.175707842245071311E+04
    0.515313359966714346E+00   -0.133063957901549728E+02    0.491897442962637310E+01    0.175708251092901901E+04
    0.480031723696028090E+00   -0.133014413899004005E+02    0.575615436535671243E+01    0.175709081619764106E+04
    0.480031723696028090E+00   -0.133014413899004005E+02    0.575615436535671243E+01    0.175709081619764106E+04
    0.516864715800929853E+00   -0.132746970569277778E+02    0.469843633244259706E+01    0.175710630402767947E+04
    0.516864715800929853E+00   -0.132746970569277778E+02    0.469843633244259706E+01    0.175710630402767947E+04
    0.510131536592344670E+00   -0.133649093723833658E+02    0.518611118486508715E+01    0.175712414629769773E+04
    0.422833940756470295E+00   -0.132335370099756489E+02    0.401541733981470195E+01    0.175712921627385572E+04
    0.422833940756470295E+00   -0.132335370099756489E+02    0.401541733981470195E+01    0.175712921627385572E+04
    0.486008395911167623E+00   -0.132836811061148161E+02    0.562991112422051110E+01    0.175713151046119106E+04
    0.421294244847971511E+00   -0.132351574593204635E+02    0.457325663092483836E+01    0.175713548050941540E+04
    0.446030258459051643E+00   -0.134377096642987901E+02    0.521560791105168686E+01    0.175713863224812053E+04
    0.476696434981458195E+00   -0.133152666114511877E+02    0.394927776943298570E+01    0.175714008567907808E+04
    0.481104900786862411E+00   -0.130096001093773399E+02    0.363965412004670519E+01    0.175715056347169707E+04
    0.476392420918542392E+00   -0.131847897545085910E+02    0.532593663709207732E+01    0.175715208409628576E+04
    0.480242794950383800E+00   -0.134727396330712583E+02    0.516238230815120414E+01    0.175715426866920302E+04
    0.422400225156023046E+00   -0.130971268263582381E+02    0.410760296538622427E+01    0.175715926706695723E+04
    0.501853865134313404E+00   -0.132685952391264497E+02    0.529821423581956275E+01    0.175716914442959001E+04
    0.439494541985038234E+00   -0.131890290333611944E+02    0.510091482959852094E+01    0.175717120807619767E+04
    0.440837001642368165E+00   -0.133311506394895947E+02    0.543377105299159169E+01    0.175719027015232268E+04
    0.440837001642368165E+00   -0.133311506394895947E+02    0.543377105299159169E+01    0.175719027015232268E+04
    0.460648532814483591E+00   -0.131702424454423905E+02    0.524978681525699109E+01    0.175720078970754025E+04
    0.484491775928972412E+00   -0.134804089492096519E+02    0.575363319285739738E+01    0.175721036763610073E+04
    0.484491775928972412E+00   -0.134804089492096519E+02    0.575363319285739738E+01    0.175721036763610073E+04
    0.512306218935108193E+00   -0.131381582193553648E+02    0.416299292631212214E+01    0.175721125825618537E+04
    0.455788590994838039E+00   -0.130624560237394292E+02    0.468263800600404334E+01    0.175721245045618525E+04
    0.495469815349554477E+00   -0.134377650358178879E+02    0.508862683762324775E+01    0.175721518197400178E+04
    0.460472692850407483E+00   -0.134756012964061895E+02    0.569107579804186159E+01    0.175721957969712253E+04
    0.477189088204283962E+00   -0.130466102203991845E+02    0.334629416808942182E+01    0.175723411552854736E+04
    0.448360179609647913E+00   -0.132682362229491417E+02    0.544448623883728189E+01    0.175723487977068567E+04
    0.424622714667385992E+00   -0.132600153200954463E+02    0.464703159551654288E+01    0.175724090440776968E+04
    0.486532107651123091E+00   -0.134710792278216331E+02    0.542381122862980991E+01    0.175726239316455349E+04
    0.486532107651123091E+00   -0.134710792278216331E+02    0.542381122862980991E+01    0.175726239316455349E+04
    0.430001241150087976E+00   -0.131834299655142395E+02    0.479608046539961563E+01    0.175726268876488234E+04
    0.493206835759133488E+00   -0.130399249502251724E+02    0.391767911456298012E+01    0.175726577459441182E+04
    0.476326515149283924E+00   -0.130515506085452397E+02    0.334085391316984470E+01    0.175727034083739409E+04
    0.437961462320475947E+00   -0.131031988920636486E+02    0.340326723363198269E+01    0.175728048420219852E+04
    0.422075018266514279E+00   -0.131416679508231304E+02    0.423721506460159425E+01    0.175729421963998152E+04
    0.422075018266514279E+00   -0.131416679508231304E+02    0.423721506460159425E+01    0.175729421963998152E+04
    0.452879822559018486E+00   -0.134034138260032982E+02    0.471978854182455709E+01    0.175731305800658038E+04
    0.452879822559018486E+00   -0.134034138260032982E+02    0.471978854182455709E+01    0.175731305800658038E+04
    0.424299018589543886E+00   -0.131067448030498745E+02    0.391286022505585152E+01    0.175733631004383938E+04
    0.494879183143197787E+00   -0.133649662942644269E+02    0.555170513220958650E+01    0.175734882115645951E+04
    0.454714121982280561E+00   -0.134434537524927968E+02    0.545954071428018306E+01    0.175735010780024800E+04
    0.458544640185284624E+00   -0.130232621179146690E+02    0.424018770507240106E+01    0.175735421393080492E+04
    0.471274622950839328E+00   -0.130303028041860838E+02    0.347304632022064474E+01    0.175736419400889486E+04
    0.471274622950839328E+00   -0.130303028041860838E+02    0.347304632022064474E+01    0.175736419400889486E+04
    0.509170663951347802E+00   -0.132839188167314290E+02    0.434402687555099476E+01    0.175736852884671180E+04
    0.468557363386044035E+00   -0.132805554243594823E+02    0.383139503551820759E+01    0.175739710244033290E+04
    0.480900247184097296E+00   -0.134023312818198832E+02    0.465917333869198025E+01    0.175739951642815595E+04
    0.438526751590269104E+00   -0.133348861423780569E+02    0.512409824706405992E+01    0.175742502116198420E+04
    0.438526751590269104E+00   -0.133348861423780569E+02    0.512409824706405992E+01    0.175742502116198420E+04
    0.507042193602542879E+00   -0.133010543889654969E+02    0.442785539627662761E+01    0.175742519682124521E+04
    0.488553697579007240E+00   -0.132303239016874059E+02    0.370369025723291534E+01    0.175743732612995018E+04
    0.450927407182444506E+00   -0.134136268229615716E+02    0.507516302587995760E+01    0.175744820067773617E+04
    0.456223680508385909E+00   -0.133191013617687659E+02    0.552905208726818476E+01    0.175745965826660336E+04
    0.462250439407845271E+00   -0.133713845894799785E+02    0.444250567194718293E+01    0.175746499108969078E+04
    0.438727594730800474E+00   -0.133485616259594586E+02    0.494377425922183189E+01    0.175747565404360876E+04
    0.438727594730800474E+00   -0.133485616259594586E+02    0.494377425922183189E+01    0.175747565404360876E+04
    0.489033655310922022E+00   -0.130515984694595559E+02    0.375851766457135827E+01    0.175749065878193642E+04
    0.441072007431563495E+00   -0.132396137595644383E+02    0.381110730510829532E+01    0.175750228333873042E+04
    0.427407479831796611E+00   -0.132091716587093373E+02    0.451965525115120048E+01    0.175751115443277354E+04
    0.508833684862485480E+00   -0.131889624573029671E+02    0.429921539178459255E+01    0.175752397470444703E+04
    0.498914351144188695E+00   -0.131845661195798094E+02    0.373097305272182300E+01    0.175752747745637657E+04
    0.445863376636735476E+00   -0.130610521192973597E+02    0.433352030384720610E+01    0.175752941370492772E+04
    0.481894734426860705E+00   -0.130474911179811883E+02    0.361742329894457848E+01    0.175753460484792049E+04
    0.429894292226256747E+00   -0.132315214855977779E+02    0.463791756438440750E+01    0.175754719970389306E+04
    0.429894292226256747E+00   -0.132315214855977779E+02    0.463791756438440750E+01    0.175754719970389306E+04
    0.500881457614398728E+00   -0.131100059666249820E+02    0.415955055443828758E+01    0.175754814176722402E+04
    0.451793809622831777E+00   -0.131652837144977148E+02    0.346122105437382199E+01    0.175755362462375979E+04
    0.459076301312944191E+00   -0.133668236472576112E+02    0.555648740862673485E+01    0.175755374880666204E+04
    0.459076301312944191E+00   -0.133668236472576112E+02    0.555648740862673485E+01    0.175755374880666204E+04
    0.494358714933738952E+00   -0.131796873358543429E+02    0.485699709688983905E+01    0.175755665684829955E+04
    0.467789831367570130E+00   -0.132338392878219970E+02    0.530644026309975825E+01    0.175756452416160596E+04
    0.457881874031531799E+00   -0.132695225403363679E+02    0.385102641557231395E+01    0.175756651190353273E+04
    0.467887302631336155E+00   -0.133779569987155931E+02    0.453790505491743801E+01    0.175757822870299219E+04
    0.431839817908689527E+00   -0.131922473231229951E+02    0.382851217383081277E+01    0.175759598415140727E+04
    0.465599364393259441E+00   -0.133947061566264090E+02    0.471224891051025452E+01    0.175760240867116704E+04
    0.467959111469463451E+00   -0.134287853994050597E+02    0.545336972157715749E+01    0.175761343317938622E+04
    0.455839860292916788E+00   -0.134084976295359208E+02    0.512254992700748435E+01    0.175761348453583878E+04
    0.469113389323542407E+00   -0.131587454137540067E+02    0.343806278068848226E+01    0.175761687633944371E+04
    0.473287937058405994E+00   -0.130903341064389416E+02    0.340597617539138930E+01    0.175762087710991796E+04
    0.480437813484916987E+00   -0.134235299209126193E+02    0.513176106332642679E+01    0.175762538078459943E+04
    0.504995190987323372E+00   -0.131727234446402317E+02    0.432645320266142441E+01    0.175763690662898489E+04
    0.504566190989588215E+00   -0.132854466352899241E+02    0.470924032326633846E+01    0.175764409422757285E+04
    0.445614020707541636E+00   -0.132426272577265305E+02    0.508093568976981302E+01    0.175764588813124283E+04
    0.446795701333891682E+00   -0.133586305189188295E+02    0.510561218834289932E+01    0.175766023425488061E+04
    0.457220302567750370E+00   -0.133870586504211548E+02    0.538832664121391769E+01    0.175766232567813813E+04
    0.433986469445552636E+00   -0.131670391434129037E+02    0.374369569993383822E+01    0.175767208261290284E+04
    0.504024625770559398E+00   -0.131895919005864748E+02    0.445299494723272815E+01    0.175767352612417494E+04
    0.488760547448494176E+00   -0.132544578506102351E+02    0.516090831854867638E+01    0.175767607846829469E+04
    0.466855524275669120E+00   -0.134194617783427077E+02    0.534610506854596146E+01    0.175768214707605739E+04
    0.447170351262109467E+00   -0.133347686527630618E+02    0.448329288455390529E+01    0.175769803206586221E+04
    0.499987007325548793E+00   -0.132838902476217608E+02    0.492185299215292815E+01    0.175770219468331584E+04
    0.461705335724470034E+00   -0.133390465946585923E+02    0.543669950931283275E+01    0.175770571146173188E+04
    0.442779670390877955E+00   -0.131844532018998812E+02    0.365322556520636077E+01    0.175770732439488688E+04
    0.499792602650791729E+00   -0.132670481328971164E+02    0.489412173777423831E+01    0.175770741657371718E+04
    0.447819874329568046E+00   -0.130639964887655431E+02    0.361885341459521070E+01    0.175770837569590140E+04
    0.452060736142975816E+00   -0.133795750458697249E+02    0.509504152806669275E+01    0.175771195412321822E+04
    0.469090997746559157E+00   -0.131928604041026727E+02    0.507493413505403623E+01    0.175771354360507712E+04
    0.463440516689874515E+00   -0.131587779130830693E+02    0.493417414991922954E+01    0.175771365821476570E+04
    0.473805738123648013E+00   -0.134001673310241145E+02    0.546089565003782429E+01    0.175771506410824486E+04
    0.490889687144290043E+00   -0.133740172257083074E+02    0.486552805917376752E+01    0.175772120704439385E+04
    0.490190439783811938E+00   -0.132243527794231870E+02    0.500270298891847354E+01    0.175772185157162448E+04
    0.496077779682507547E+00   -0.131312996328303750E+02    0.375320041475073207E+01    0.175772302136341159E+04
    0.487787523306678850E+00   -0.132723929695855016E+02    0.518869985499973652E+01    0.175773000910658538E+04
    0.504179852401798634E+00   -0.132196028425829706E+02    0.446586487838219703E+01    0.175773017817600680E+04
    0.489860743357375839E+00   -0.133807145968895362E+02    0.501190825635230031E+01    0.175774059771631050E+04
    0.474198953896525888E+00   -0.133059595692824342E+02    0.538894379087327735E+01    0.175774085147140067E+04
    0.438097409198131782E+00   -0.131622986741880617E+02    0.368904115678961109E+01    0.175774835697334356E+04
    0.485720957264649700E+00   -0.131743981220586441E+02    0.362102903719303004E+01    0.175774935676124960E+04
    0.449907127664508577E+00   -0.130553080710352241E+02    0.407833464421790204E+01    0.175775232094608714E+04
    0.454620727357669674E+00   -0.132674529139220976E+02    0.520252269524385813E+01    0.175775647544802428E+04
    0.471935989348245322E+00   -0.130513571601899709E+02    0.367101666088821155E+01    0.175775665959223966E+04
    0.454631869462463367E+00   -0.133822386506210869E+02    0.502402870076408092E+01    0.175775753697714936E+04
    0.447206214292994675E+00   -0.133344012737554110E+02    0.454730917678113666E+01    0.175776022617264357E+04
    0.498650699492762861E+00   -0.131324139511202738E+02    0.417908021434215637E+01    0.175776131919870068E+04
    0.449847041417455351E+00   -0.132573910196921876E+02    0.510725300447686603E+01    0.175776287091788140E+04
    0.430977917548168055E+00   -0.131732166192596676E+02    0.397801145348691199E+01    0.175776622109963932E+04
    0.490262748090073197E+00   -0.132243867298346967E+02    0.496322730572372706E+01    0.175777263282631316E+04
    0.475929605355484897E+00   -0.130685201796019275E+02    0.359995526699593693E+01    0.175778472419812238E+04
    0.489521849949721144E+00   -0.133704816876429931E+02    0.489815631141084484E+01    0.175778513969487994E+04
    0.458747355056165151E+00   -0.133871373586879177E+02    0.500277466529800297E+01    0.175779640653677643E+04
    0.470187205699152289E+00   -0.131787524074386990E+02    0.496671702300531948E+01    0.175779757842197728E+04
    0.481971332207597580E+00   -0.132698192362370300E+02    0.398207498647530445E+01    0.175779837561749150E+04
    0.463784428581765162E+00   -0.131248154112120989E+02    0.345705539100556969E+01    0.175780085211573851E+04
    0.490594224005260537E+00   -0.133197668041330406E+02    0.442140425436655526E+01    0.175781772538001542E+04
    0.497390634929684383E+00   -0.132249002371317896E+02    0.403804452940729508E+01    0.175783343685882505E+04
    0.446347770300318913E+00   -0.131789612179013869E+02    0.431150249523952400E+01    0.175828084120722815E+04
    0.446347770300318913E+00   -0.131789612179013869E+02    0.431150249523952400E+01    0.175828084120722815E+04
    0.471909300464570469E+00   -0.133247866722620323E+02    0.529103090305684809E+01    0.175790624137439704E+04
    0.477490194282746083E+00   -0.131446742530971470E+02    0.367426286344669695E+01    0.175808379059284448E+04
    0.445108634826200333E+00   -0.131617329996925783E+02    0.379741019993430973E+01    0.175809369935107429E+04
    0.451500403951619722E+00   -0.131058063227090607E+02    0.441793410779962592E+01    0.175794400864716977E+04
    0.452894363356734164E+00   -0.132355298709676674E+02    0.384070166112368128E+01    0.175788261034899392E+04
    0.491662156667767025E+00   -0.132091079985567497E+02    0.477989426057255962E+01    0.175788843158691930E+04
    0.481025240174584257E+00   -0.131299218417638865E+02    0.446496263304023966E+01    0.175802601956169315E+04
    0.479587149294973925E+00   -0.131412901955896100E+02    0.368451831240223715E+01    0.175806765353261244E+04
    0.458740580686436861E+00   -0.133275259790906109E+02    0.492137191048056355E+01    0.175810122770931616E+04
    0.460888614066729208E+00   -0.132860065970571206E+02    0.471359206022148047E+01    0.175831043774480031E+04
    0.472276425861549276E+00   -0.130878556227125209E+02    0.432232168712874731E+01    0.175795234939750549E+04
    0.475003210310040780E+00   -0.130607599887144925E+02    0.391257457812565601E+01    0.175788609771896540E+04
    0.452592614579349739E+00   -0.132150250711310040E+02    0.450657615109590992E+01    0.175835133940405035E+04
    0.497677891950561113E+00   -0.132277621428609002E+02    0.427367709437213961E+01    0.175797247745952041E+04
    0.459086224782284003E+00   -0.133376056496839972E+02    0.472511006885131923E+01    0.175806927839251830E+04
    0.480573817724047059E+00   -0.131441266135740200E+02    0.414567467230308218E+01    0.175831125324148616E+04
    0.474332203774276762E+00   -0.132418358573592201E+02    0.397724229435297882E+01    0.175814375667368427E+04
    0.484797867029420626E+00   -0.132654213158755656E+02    0.510538873858920983E+01    0.175786957578913552E+04
    0.467834803410381639E+00   -0.133260919086913248E+02    0.480389178060821465E+01    0.175820528547785693E+04
    0.501432757917191330E+00   -0.132099862822913376E+02    0.439403160814150873E+01    0.175784437048950576E+04
    0.436888847179035311E+00   -0.132001910290407878E+02    0.433486455112582725E+01    0.175800972250383825E+04
    0.467770206140756706E+00   -0.133238978759983997E+02    0.457690820573290580E+01    0.175816483238424280E+04
    0.477655301180732739E+00   -0.132416730955506683E+02    0.437246377059377878E+01    0.175842362508743349E+04
    0.477655301180732739E+00   -0.132416730955506683E+02    0.437246377059377878E+01    0.175842362508743349E+04
    0.492939480665383956E+00   -0.131840445708265062E+02    0.417745171358850875E+01    0.175811586078537039E+04
    0.474753896695192967E+00   -0.132270400452932044E+02    0.500816210369009696E+01    0.175797604624994688E+04
    0.453256736952283301E+00   -0.131451048707505187E+02    0.368555626282815485E+01    0.175812314019940641E+04
    0.456329187216178767E+00   -0.130972820691145948E+02    0.412461813078112804E+01    0.175817076500755843E+04
    0.456329187216178767E+00   -0.130972820691145948E+02    0.412461813078112804E+01    0.175817076500755843E+04
    0.462721352297816857E+00   -0.131809684353497492E+02    0.491319202858154558E+01    0.175789148093268568E+04
    0.470304956517562323E+00   -0.133179148738061137E+02    0.433224602756303234E+01    0.175798576899961631E+04
    0.486696719145609524E+00   -0.132476022253370935E+02    0.424423286298840718E+01    0.175820678146919317E+04
    0.470631486390210796E+00   -0.132808770884736536E+02    0.433701908677541681E+01    0.175829719868948769E+04
    0.473833126644993330E+00   -0.131971196592821496E+02    0.482931682725994360E+01    0.175808344401606814E+04
    0.492516118451212570E+00   -0.132924458610869749E+02    0.502303594449241952E+01    0.175785078823507615E+04
    0.468456631630739251E+00   -0.131659500801880025E+02    0.486813262833968174E+01    0.175787365402750493E+04
    0.473808109399312061E+00   -0.131863444451596585E+02    0.412410365293463244E+01    0.175848254580374123E+04
    0.435864513585766167E+00   -0.131481769099121628E+02    0.388081768511144665E+01    0.175791021135127949E+04
    0.485464771359487735E+00   -0.133196681796549754E+02    0.438069440587420811E+01    0.175787981474716548E+04
    0.462631906007388682E+00   -0.130805455942479014E+02    0.398410108728394219E+01    0.175812062866370206E+04
    0.434846379734882271E+00   -0.132221627203857928E+02    0.413559010330879762E+01    0.175786345917053836E+04
    0.472284256634678545E+00   -0.132907879550488666E+02    0.483033523291019584E+01    0.175828437691552904E+04
    0.450574463619497934E+00   -0.132598298007496140E+02    0.496141336731660409E+01    0.175796843326341445E+04
    0.480840115967363646E+00   -0.131008758686897231E+02    0.373387101010379396E+01    0.175801155869532340E+04
    0.487495591602007838E+00   -0.133064735286422771E+02    0.456113551876045431E+01    0.175807659327471924E+04
    0.465439654412149961E+00   -0.131448908426572739E+02    0.429337242279787379E+01    0.175839562061983565E+04
    0.466447573545477612E+00   -0.130884278037022153E+02    0.412713004149985974E+01    0.175813342074762591E+04
    0.465301022103124406E+00   -0.131639103051132125E+02    0.446874299162237421E+01    0.175835420196972177E+04
    0.444574043520072459E+00   -0.131585622542421614E+02    0.435345792668072473E+01    0.175816243943275208E+04
    0.474691839938153670E+00   -0.131166667023169481E+02    0.393476263600531162E+01    0.175827887589955253E+04
    0.496718933913937288E+00   -0.131874571615989673E+02    0.417467533044842920E+01    0.175799957407377428E+04
    0.451257567852422881E+00   -0.133446911203773020E+02    0.479075435905838720E+01    0.175789690588654162E+04
    0.461536440340873266E+00   -0.132696796783710056E+02    0.476193792935129512E+01    0.175831521325688345E+04
    0.461536440340873266E+00   -0.132696796783710056E+02    0.476193792935129512E+01    0.175831521325688345E+04
    0.488044999289260151E+00   -0.133434406410890638E+02    0.475184614058928823E+01    0.175793208034216195E+04
    0.463094599485171399E+00   -0.131803959720283892E+02    0.371874356342103773E+01    0.175814640411699588E+04
    0.460938147369632789E+00   -0.132326409365407720E+02    0.390654386683491728E+01    0.175812012826451519E+04
    0.460938147369632789E+00   -0.132326409365407720E+02    0.390654386683491728E+01    0.175812012826451519E+04
    0.467668701594400327E+00   -0.132174019473227435E+02    0.390053191518019027E+01    0.175823449968140199E+04
    0.495068319670928902E+00   -0.132650044066819444E+02    0.435450573904862726E+01    0.175798309277667295E+04
    0.493791965333078897E+00   -0.132540606400957621E+02    0.438422435092940876E+01    0.175806783226839480E+04
    0.491557997888715015E+00   -0.131728753139454575E+02    0.382465994848609325E+01    0.175794004686061407E+04
    0.441806666733765674E+00   -0.131523257148691037E+02    0.414317391689225900E+01    0.175816187935381731E+04
    0.441806666733765674E+00   -0.131523257148691037E+02    0.414317391689225900E+01    0.175816187935381731E+04
    0.486437638132687811E+00   -0.131821514474695416E+02    0.440022422363526911E+01    0.175823230887425188E+04
    0.486437638132687811E+00   -0.131821514474695416E+02    0.440022422363526911E+01    0.175823230887425188E+04
    0.449486440987344249E+00   -0.131107450302951154E+02    0.413123185508475643E+01    0.175816555935548354E+04
    0.472072668382631511E+00   -0.131869501679429710E+02    0.464495010516782791E+01    0.175826559030321096E+04
    0.480700272642696325E+00   -0.131344837646942416E+02    0.384868549580286023E+01    0.175821023555986608E+04
    0.480700272642696325E+00   -0.131344837646942416E+02    0.384868549580286023E+01    0.175821023555986608E+04
    0.469936426072684821E+00   -0.133311586334822643E+02    0.453397841119573375E+01    0.175808131992688459E+04
    0.491193384365137264E+00   -0.131343810413947253E+02    0.380724366103625655E+01    0.175793177500071329E+04
    0.465215100654455815E+00   -0.131111109839927522E+02    0.390668118795400021E+01    0.175830852769967578E+04
    0.454623191969365070E+00   -0.132760630665727177E+02    0.476599435422680617E+01    0.175822088164981574E+04
    0.466764750695215280E+00   -0.132425446144596748E+02    0.467145618738942048E+01    0.175839556195061027E+04
    0.444778969731183471E+00   -0.131414267829315889E+02    0.459453484421170266E+01    0.175784353609193045E+04
    0.472994260297285196E+00   -0.132995361934653324E+02    0.412438189584290882E+01    0.175784068288415756E+04
    0.456899722056258506E+00   -0.132732515236019655E+02    0.447764125877395625E+01    0.175832910746390849E+04
    0.456899722056258506E+00   -0.132732515236019655E+02    0.447764125877395625E+01    0.175832910746390849E+04
    0.439929449195488820E+00   -0.132280692581364629E+02    0.457910534948418935E+01    0.175799398005590297E+04
    0.481404872492668279E+00   -0.133701245163907068E+02    0.486936655731179791E+01    0.175791139460199861E+04
    0.495894815516171983E+00   -0.132623519977971913E+02    0.452699467228913477E+01    0.175800295519877045E+04
    0.474894368219073604E+00   -0.133210352116783639E+02    0.474267833730054900E+01    0.175821500994531402E+04
    0.452317321416287221E+00   -0.131364604255257493E+02    0.370608277044269974E+01    0.175814244538267303E+04
    0.471957144241137661E+00   -0.130965584171295415E+02    0.411267090629757437E+01    0.175816949840063489E+04
    0.461692505588679802E+00   -0.132446323925173992E+02    0.417870093465713666E+01    0.175837612158913748E+04
    0.461692505588679802E+00   -0.132446323925173992E+02    0.417870093465713666E+01    0.175837612158913748E+04
    0.455157340919996045E+00   -0.133070038211289301E+02    0.521245132104642117E+01    0.175783671957393790E+04
    0.487532425017992876E+00   -0.131980691239411296E+02    0.380427640584711479E+01    0.175793060440410773E+04
    0.464785536008587741E+00   -0.133097743944706437E+02    0.509316545460504422E+01    0.175807704728659724E+04
    0.453530563761853411E+00   -0.131827399755920673E+02    0.419016584713986351E+01    0.175844478325641057E+04
    0.494574933961045904E+00   -0.131540020401881712E+02    0.409537789459825952E+01    0.175800065269110019E+04
    0.475057201992542311E+00   -0.130928529493961108E+02    0.358791700934744506E+01    0.175791446745495909E+04
    0.448065432697505317E+00   -0.132852377328155686E+02    0.463798933024352333E+01    0.175811221219017398E+04
    0.464064350904866529E+00   -0.133835115131441498E+02    0.488242423376090429E+01    0.175784800050082708E+04
    0.492230417284587274E+00   -0.133023737801755075E+02    0.501193183632484018E+01    0.175787496789072975E+04
    0.481361137826860963E+00   -0.132204059563447949E+02    0.415851925556682644E+01    0.175835051861010993E+04
    0.481361137826860963E+00   -0.132204059563447949E+02    0.415851925556682644E+01    0.175835051861010993E+04
    0.483768820049176318E+00   -0.131745467748230531E+02    0.392820187714885183E+01    0.175823430483455058E+04
    0.467740528348399964E+00   -0.133145090944708198E+02    0.468800232125417349E+01    0.175825507803549476E+04
    0.478868735195565831E+00   -0.132267092095963879E+02    0.417345411291513280E+01    0.175837874108609412E+04
    0.478868735195565831E+00   -0.132267092095963879E+02    0.417345411291513280E+01    0.175837874108609412E+04
    0.443774531002373740E+00   -0.132726843642793124E+02    0.481848810955461815E+01    0.175793171194699858E+04
    0.467225241346412412E+00   -0.132028507346595809E+02    0.473071115536422937E+01    0.175825325176548790E+04
    0.467225241346412412E+00   -0.132028507346595809E+02    0.473071115536422937E+01    0.175825325176548790E+04
    0.475241401507478622E+00   -0.131936666215986165E+02    0.376359020875897166E+01    0.175810224528733420E+04
    0.464320067042917506E+00   -0.133747734704558159E+02    0.516523475971508184E+01    0.175791217245025314E+04
