    0.231279134750366211E+02   -0.467670350091448768E+02
    0.229106792153360495E+02   -0.466436066694520690E+02
    0.220700041787620975E+02   -0.461859617918342664E+02
    0.217353701591491699E+02   -0.460126436541133614E+02
    0.208867836649528869E+02   -0.455957238217566001E+02
    0.208113789558410645E+02   -0.455602443118452385E+02
    0.776373844348891701E-01   -0.455122384103507329E+02
    0.837152480749871475E-01   -0.455094179346861267E+02
    0.206080520001876444E+02   -0.454658498376575722E+02
    0.205656159713942728E+02   -0.454463835819653497E+02
    0.269651412963867188E+00   -0.454239362435216592E+02
    0.523012910617431492E+00   -0.453099609229705607E+02
    0.554022353869829454E+00   -0.452962096544192931E+02
    0.562947566721572534E+00   -0.452922597506618487E+02
    0.776105979207797780E+00   -0.451989904090792152E+02
    0.833530685896068269E+00   -0.451742133311980822E+02
    0.197497639709073418E+02   -0.450878912515843808E+02
    0.197418046082092253E+02   -0.450845413725027697E+02
    0.196139443641265423E+02   -0.450311192098941930E+02
    0.125556762666575228E+01   -0.449966696475489414E+02
    0.194919705390930176E+02   -0.449808421396502567E+02
    0.130695707579673459E+01   -0.449755983952218159E+02
    0.133671041873628127E+01   -0.449634529319433653E+02
    0.194146116126709956E+02   -0.449493020867089399E+02
    0.192903876304626465E+02   -0.448992180867934962E+02
    0.160217285156250000E+01   -0.448568531359370226E+02
    0.161415338516235352E+01   -0.448521169892889020E+02
    0.191511866050625166E+02   -0.448439207711863119E+02
    0.176834628614214617E+01   -0.447917379367642852E+02
    0.189802569739529687E+02   -0.447772120701279235E+02
    0.185662508010864258E+01   -0.447576512291511435E+02
    0.189003048910806939E+02   -0.447464604901875163E+02
    0.190794467926025391E+01   -0.447379966080465366E+02
    0.190794467926025391E+01   -0.447379966080465366E+02
    0.193761919468518595E+01   -0.447266858006380659E+02
    0.196588039398193359E+01   -0.447159505360841010E+02
    0.188053827546206414E+02   -0.447103245387777264E+02
    0.198100622608919608E+01   -0.447102196219855230E+02
    0.187943823328659718E+02   -0.447061630000424799E+02
    0.187243223190307617E+02   -0.446797865721314409E+02
    0.186111330986022949E+02   -0.446376394078852456E+02
    0.220499311531472486E+01   -0.446265599519745990E+02
    0.185527060173402560E+02   -0.446161090948109305E+02
    0.225951729262490320E+01   -0.446065367094572238E+02
    0.246398106538746120E+01   -0.445326417020838079E+02
    0.246398106538746120E+01   -0.445326417020838079E+02
    0.253213781037646335E+01   -0.445084273253200777E+02
    0.182160153995078531E+02   -0.444950322141062884E+02
    0.257528908027792180E+01   -0.444932048341005881E+02
    0.262270560023420973E+01   -0.444765743130779327E+02
    0.181630393171939559E+02   -0.444764460210182051E+02
    0.181283612474090354E+02   -0.444643479176070642E+02
    0.181283612474090354E+02   -0.444643479176070642E+02
    0.266474485397338867E+01   -0.444619143895231304E+02
    0.282871723175048828E+01   -0.444054940163664469E+02
    0.282871723175048828E+01   -0.444054940163664469E+02
    0.285921109324456024E+01   -0.443951349732459519E+02
    0.287178964560461703E+01   -0.443908741144265093E+02
    0.178779363632202148E+02   -0.443785888691975146E+02
    0.295682545766040006E+01   -0.443622558496248729E+02
    0.296328001596175783E+01   -0.443600968957690327E+02
    0.296369930450868679E+01   -0.443599567148273053E+02
    0.301751147246656792E+01   -0.443420313288366543E+02
    0.177181397974224772E+02   -0.443253407867887645E+02
    0.177181397974224772E+02   -0.443253407867887645E+02
    0.312314112883420991E+01   -0.443072239452703727E+02
    0.312314112883420991E+01   -0.443072239452703727E+02
    0.317448377609252930E+01   -0.442904867066221541E+02
    0.175889046661586974E+02   -0.442831169574879340E+02
    0.175889046661586974E+02   -0.442831169574879340E+02
    0.321585027713883109E+01   -0.442770878901061380E+02
    0.174766486874995266E+02   -0.442470505221095465E+02
    0.174766486874995266E+02   -0.442470505221095465E+02
    0.174475908279418945E+02   -0.442378069882108562E+02
    0.338511582490691199E+01   -0.442230641197336425E+02
    0.173494379688481999E+02   -0.442068647281269378E+02
    0.344287194383105266E+01   -0.442049253605919574E+02
    0.344287194383105266E+01   -0.442049253605919574E+02
    0.345396078621656777E+01   -0.442014599999904263E+02
    0.172624102634857159E+02   -0.441797922305516124E+02
    0.172624102634857159E+02   -0.441797922305516124E+02
    0.172541029711191563E+02   -0.441772258252281986E+02
    0.172541029711191563E+02   -0.441772258252281986E+02
    0.172454060241057903E+02   -0.441745423697355903E+02
    0.172454060241057903E+02   -0.441745423697355903E+02
    0.172290292574881541E+02   -0.441694985339663688E+02
    0.357600921343315514E+01   -0.441636844018169228E+02
    0.360482931137084961E+01   -0.441548620323647185E+02
    0.361006075751262401E+01   -0.441532645972615470E+02
    0.364756466797617840E+01   -0.441418487465521352E+02
    0.364756466797617840E+01   -0.441418487465521352E+02
    0.170845985412597656E+02   -0.441255382854972424E+02
    0.370927712179943336E+01   -0.441232017993959076E+02
    0.371205806732177734E+01   -0.441223655482916826E+02
    0.170654491701015765E+02   -0.441197802887078296E+02
    0.170654491701015765E+02   -0.441197802887078296E+02
    0.169564831883012275E+02   -0.440873295696728604E+02
    0.394034385681152344E+01   -0.440549051632835358E+02
    0.394034385681152344E+01   -0.440549051632835358E+02
    0.394426118709489426E+01   -0.440537680253611796E+02
    0.167925420537810126E+02   -0.440395135881972379E+02
    0.399571657180786133E+01   -0.440388954630259377E+02
    0.406461954116821289E+01   -0.440191664790112327E+02
    0.167009431507024644E+02   -0.440133240052898458E+02
    0.167009431507024644E+02   -0.440133240052898458E+02
    0.413611425963111046E+01   -0.439989212476926355E+02
    0.413611425963111046E+01   -0.439989212476926355E+02
    0.165543073965814678E+02   -0.439721845201954338E+02
    0.165543073965814678E+02   -0.439721845201954338E+02
    0.426871321852993457E+01   -0.439619819758720425E+02
    0.164755261942966804E+02   -0.439504815799697752E+02
    0.164755261942966804E+02   -0.439504815799697752E+02
    0.164614212544649874E+02   -0.439466253768488500E+02
    0.164614212544649874E+02   -0.439466253768488500E+02
    0.164277321388554505E+02   -0.439374512095999989E+02
    0.439271522471542397E+01   -0.439281535619381600E+02
    0.439271522471542397E+01   -0.439281535619381600E+02
    0.163662102722047607E+02   -0.439208294661784961E+02
    0.163662102722047607E+02   -0.439208294661784961E+02
    0.443168986832667056E+01   -0.439176639886586599E+02
    0.445256144225811035E+01   -0.439120747510214642E+02
    0.445256144225811035E+01   -0.439120747510214642E+02
    0.445469337245687402E+01   -0.439115049409067453E+02
    0.445469337245687402E+01   -0.439115049409067453E+02
    0.446999437310950398E+01   -0.439074213786110974E+02
    0.446999437310950398E+01   -0.439074213786110974E+02
    0.163078308105468750E+02   -0.439052142206971041E+02
    0.163078308105468750E+02   -0.439052142206971041E+02
    0.449427182878470077E+01   -0.439009637811159266E+02
    0.452775107635503282E+01   -0.438921020920945608E+02
    0.452775107635503282E+01   -0.438921020920945608E+02
    0.453050799981397034E+01   -0.438913746042662893E+02
    0.453050799981397034E+01   -0.438913746042662893E+02
    0.162053967838551536E+02   -0.438781859676784620E+02
    0.162053967838551536E+02   -0.438781859676784620E+02
    0.161641200459687688E+02   -0.438674281513037698E+02
    0.161641200459687688E+02   -0.438674281513037698E+02
    0.161570120398836359E+02   -0.438655833539341629E+02
    0.161570120398836359E+02   -0.438655833539341629E+02
    0.464267190433523513E+01   -0.438620671890542155E+02
    0.161151885986328125E+02   -0.438547746293187828E+02
    0.161151885986328125E+02   -0.438547746293187828E+02
    0.161068609436906165E+02   -0.438526318520956693E+02
    0.161068609436906165E+02   -0.438526318520956693E+02
    0.468707084655761719E+01   -0.438506225490104882E+02
    0.159755406780891605E+02   -0.438192546371267468E+02
    0.159755406780891605E+02   -0.438192546371267468E+02
    0.484296975895058601E+01   -0.438111393406386824E+02
    0.159190894176246331E+02   -0.438051451153158169E+02
    0.159190894176246331E+02   -0.438051451153158169E+02
    0.488117058885935862E+01   -0.438016313695942543E+02
    0.488117058885935862E+01   -0.438016313695942543E+02
    0.491191088501751594E+01   -0.437940279668990797E+02
    0.158457159996032715E+02   -0.437870203691450612E+02
    0.158457159996032715E+02   -0.437870203691450612E+02
    0.158303657876375787E+02   -0.437832591938326630E+02
    0.158303657876375787E+02   -0.437832591938326630E+02
    0.158104327559141566E+02   -0.437783909405018434E+02
    0.158104327559141566E+02   -0.437783909405018434E+02
    0.157813429832458496E+02   -0.437713184185991011E+02
    0.157813429832458496E+02   -0.437713184185991011E+02
    0.157704353332519531E+02   -0.437686762858532887E+02
    0.157313456342489388E+02   -0.437592516595220218E+02
    0.157313456342489388E+02   -0.437592516595220218E+02
    0.156718599259305922E+02   -0.437450414393471050E+02
    0.156718599259305922E+02   -0.437450414393471050E+02
    0.156270665826427724E+02   -0.437344460967138886E+02
    0.156270665826427724E+02   -0.437344460967138886E+02
    0.517472159687024202E+01   -0.437307593667889378E+02
    0.517472159687024202E+01   -0.437307593667889378E+02
    0.155999064445495605E+02   -0.437280656539925445E+02
    0.155999064445495605E+02   -0.437280656539925445E+02
    0.520198292937459694E+01   -0.437243744447340887E+02
    0.520198292937459694E+01   -0.437243744447340887E+02
    0.155789151287596166E+02   -0.437231571293172507E+02
    0.155789151287596166E+02   -0.437231571293172507E+02
    0.522581560052995187E+01   -0.437188199535580182E+02
    0.522581560052995187E+01   -0.437188199535580182E+02
    0.155525143238102928E+02   -0.437170118232788241E+02
    0.155525143238102928E+02   -0.437170118232788241E+02
    0.524216320952207404E+01   -0.437150247254666766E+02
    0.524216320952207404E+01   -0.437150247254666766E+02
    0.155395865440368652E+02   -0.437140140682532987E+02
    0.155395865440368652E+02   -0.437140140682532987E+02
    0.154828470257280095E+02   -0.437009459790398864E+02
    0.154828470257280095E+02   -0.437009459790398864E+02
    0.154580806869064524E+02   -0.436952872827937568E+02
    0.154580806869064524E+02   -0.436952872827937568E+02
    0.153305638247086176E+02   -0.436665887221942057E+02
    0.153305638247086176E+02   -0.436665887221942057E+02
    0.555139780044555664E+01   -0.436454987722849452E+02
    0.555139780044555664E+01   -0.436454987722849452E+02
    0.151943586859415785E+02   -0.436367430108253913E+02
    0.151943586859415785E+02   -0.436367430108253913E+02
    0.563597532837983284E+01   -0.436272324265048610E+02
    0.563597532837983284E+01   -0.436272324265048610E+02
    0.565031477117588032E+01   -0.436241674281252045E+02
    0.565031477117588032E+01   -0.436241674281252045E+02
    0.567026619133985488E+01   -0.436199182855005176E+02
    0.567026619133985488E+01   -0.436199182855005176E+02
    0.569078788019670956E+01   -0.436155663781902589E+02
    0.569078788019670956E+01   -0.436155663781902589E+02
    0.569636581468048941E+01   -0.436143867758052792E+02
    0.569636581468048941E+01   -0.436143867758052792E+02
    0.571114001864054188E+01   -0.436112691434550825E+02
    0.571114001864054188E+01   -0.436112691434550825E+02
    0.150691114676770734E+02   -0.436100352235649709E+02
    0.150691114676770734E+02   -0.436100352235649709E+02
    0.150456554643550930E+02   -0.436051119318485263E+02
    0.150456554643550930E+02   -0.436051119318485263E+02
    0.150125733106256511E+02   -0.435982102458861078E+02
    0.579804026680276952E+01   -0.435931303712628377E+02
    0.581541950444558076E+01   -0.435895435630159653E+02
    0.581541950444558076E+01   -0.435895435630159653E+02
    0.149614586587105336E+02   -0.435876434057362943E+02
    0.585687160491943359E+01   -0.435810433552456757E+02
    0.148881643275186875E+02   -0.435726965659883803E+02
    0.148881643275186875E+02   -0.435726965659883803E+02
    0.599751076522967264E+01   -0.435527799593054326E+02
    0.599751076522967264E+01   -0.435527799593054326E+02
    0.600174009636203110E+01   -0.435519438020512624E+02
    0.600174009636203110E+01   -0.435519438020512624E+02
    0.147569778128179916E+02   -0.435465473964983261E+02
    0.147569778128179916E+02   -0.435465473964983261E+02
    0.147547526527865607E+02   -0.435461105387967180E+02
    0.147547526527865607E+02   -0.435461105387967180E+02
    0.147437570012160339E+02   -0.435439550727521691E+02
    0.147437570012160339E+02   -0.435439550727521691E+02
    0.147178811488076029E+02   -0.435389041233803624E+02
    0.147178811488076029E+02   -0.435389041233803624E+02
    0.607695847928305799E+01   -0.435372072573099942E+02
    0.607695847928305799E+01   -0.435372072573099942E+02
    0.610578506148741784E+01   -0.435316271289905501E+02
    0.610578506148741784E+01   -0.435316271289905501E+02
    0.611376246462310835E+01   -0.435300895029102577E+02
    0.146582731644505575E+02   -0.435273833332196745E+02
    0.146582731644505575E+02   -0.435273833332196745E+02
    0.146547104344962982E+02   -0.435266998070362661E+02
    0.146547104344962982E+02   -0.435266998070362661E+02
    0.615940148734563575E+01   -0.435213477439282315E+02
    0.615940148734563575E+01   -0.435213477439282315E+02
    0.616077153499671848E+01   -0.435210867722879158E+02
    0.616077153499671848E+01   -0.435210867722879158E+02
    0.145958450265761375E+02   -0.435154888911688076E+02
    0.145958450265761375E+02   -0.435154888911688076E+02
    0.145925599746752095E+02   -0.435148678468624936E+02
    0.145925599746752095E+02   -0.435148678468624936E+02
    0.145778059959411621E+02   -0.435120845719467937E+02
    0.145773994606329378E+02   -0.435120080194754806E+02
    0.145773994606329378E+02   -0.435120080194754806E+02
    0.145567053296116544E+02   -0.435081210441213813E+02
    0.145567053296116544E+02   -0.435081210441213813E+02
    0.625804412886146810E+01   -0.435027738287598282E+02
    0.144953051199753418E+02   -0.434967016661830925E+02
    0.144953051199753418E+02   -0.434967016661830925E+02
    0.144820846765156830E+02   -0.434942650888192190E+02
    0.144820846765156830E+02   -0.434942650888192190E+02
    0.144578362111493917E+02   -0.434898164482944978E+02
    0.144578362111493917E+02   -0.434898164482944978E+02
    0.144483441411961806E+02   -0.434880822324786038E+02
    0.144483441411961806E+02   -0.434880822324786038E+02
    0.635576248168945312E+01   -0.434848056841611665E+02
    0.635664285401609597E+01   -0.434846457571363842E+02
    0.635846304133608076E+01   -0.434843152154267258E+02
    0.635846304133608076E+01   -0.434843152154267258E+02
    0.640007343804856088E+01   -0.434767995270442071E+02
    0.640007343804856088E+01   -0.434767995270442071E+02
    0.143572827634093905E+02   -0.434716512004015883E+02
    0.143572827634093905E+02   -0.434716512004015883E+02
    0.143536818541440336E+02   -0.434710091251950317E+02
    0.143536818541440336E+02   -0.434710091251950317E+02
    0.644642280729256889E+01   -0.434685196131254514E+02
    0.143008535884914831E+02   -0.434616564337996394E+02
    0.142871766140274854E+02   -0.434592555344352505E+02
    0.142871766140274854E+02   -0.434592555344352505E+02
    0.142671617523613303E+02   -0.434557572348939587E+02
    0.142671617523613303E+02   -0.434557572348939587E+02
    0.142670243471542086E+02   -0.434557332808145844E+02
    0.142670243471542086E+02   -0.434557332808145844E+02
    0.142582939909823558E+02   -0.434542130451543116E+02
    0.142582939909823558E+02   -0.434542130451543116E+02
    0.653193626220873647E+01   -0.434534970850768332E+02
    0.653193626220873647E+01   -0.434534970850768332E+02
    0.656897861936841476E+01   -0.434470918343511912E+02
    0.656897861936841476E+01   -0.434470918343511912E+02
    0.663220091193026917E+01   -0.434363022561588821E+02
    0.663220091193026917E+01   -0.434363022561588821E+02
    0.664409868490644140E+01   -0.434342918802366924E+02
    0.141357456198655740E+02   -0.434332354141059724E+02
    0.141357456198655740E+02   -0.434332354141059724E+02
    0.671212383856628758E+01   -0.434229199446045797E+02
    0.671212383856628758E+01   -0.434229199446045797E+02
    0.140578420828201214E+02   -0.434202513712486962E+02
    0.140511230050940483E+02   -0.434191443077930970E+02
    0.140511230050940483E+02   -0.434191443077930970E+02
    0.676815871310847328E+01   -0.434137088670023061E+02
    0.676815871310847328E+01   -0.434137088670023061E+02
    0.685201600523659504E+01   -0.434001882551720755E+02
    0.685201600523659504E+01   -0.434001882551720755E+02
    0.139299631118774414E+02   -0.433995301056631533E+02
    0.139299631118774414E+02   -0.433995301056631533E+02
    0.139299476026724900E+02   -0.433995276372107313E+02
    0.138820507497194061E+02   -0.433919559854989174E+02
    0.138820507497194061E+02   -0.433919559854989174E+02
    0.691878308769681372E+01   -0.433896494359892984E+02
    0.691878308769681372E+01   -0.433896494359892984E+02
    0.693314679020868496E+01   -0.433874084241395863E+02
    0.693314679020868496E+01   -0.433874084241395863E+02
    0.694205740698108986E+01   -0.433860228640275665E+02
    0.694205740698108986E+01   -0.433860228640275665E+02
    0.695095426511995029E+01   -0.433846430080080694E+02
    0.695095426511995029E+01   -0.433846430080080694E+02
    0.696352103911519915E+01   -0.433827000361875079E+02
    0.696352103911519915E+01   -0.433827000361875079E+02
    0.137771470714899760E+02   -0.433757332154591353E+02
    0.137771470714899760E+02   -0.433757332154591353E+02
    0.137699439651802944E+02   -0.433746374642887602E+02
    0.137699439651802944E+02   -0.433746374642887602E+02
    0.137660857113631963E+02   -0.433740514991216628E+02
    0.137425958663797960E+02   -0.433704984763906793E+02
    0.704629709232348578E+01   -0.433700794521221340E+02
    0.704629709232348578E+01   -0.433700794521221340E+02
    0.704944023438268186E+01   -0.433696063041788733E+02
    0.704944023438268186E+01   -0.433696063041788733E+02
    0.137220622378245061E+02   -0.433674129436475724E+02
    0.707058291541020267E+01   -0.433664351769811418E+02
    0.707058291541020267E+01   -0.433664351769811418E+02
    0.137091017154785639E+02   -0.433654751683491639E+02
    0.137091017154785639E+02   -0.433654751683491639E+02
    0.707944557422711629E+01   -0.433651118767752948E+02
    0.137008006703252825E+02   -0.433642380196972539E+02
    0.137008006703252825E+02   -0.433642380196972539E+02
    0.136941281706926521E+02   -0.433632458297922696E+02
    0.136941281706926521E+02   -0.433632458297922696E+02
    0.136919526239727958E+02   -0.433629227626233060E+02
    0.136919526239727958E+02   -0.433629227626233060E+02
    0.136577269996744715E+02   -0.433578683129989884E+02
    0.136577269996744715E+02   -0.433578683129989884E+02
    0.713285011615966713E+01   -0.433572127648880965E+02
    0.714477145447323991E+01   -0.433554669918178064E+02
    0.714477145447323991E+01   -0.433554669918178064E+02
    0.719176277008624787E+01   -0.433486478237442867E+02
    0.719176277008624787E+01   -0.433486478237442867E+02
    0.135882496833801270E+02   -0.433477699963351526E+02
    0.135830901949908913E+02   -0.433470287448600970E+02
    0.135830901949908913E+02   -0.433470287448600970E+02
    0.721799848828673163E+01   -0.433448838406703416E+02
    0.721799848828673163E+01   -0.433448838406703416E+02
    0.723744834109608970E+01   -0.433421134043673604E+02
    0.726750066516791104E+01   -0.433378662247042641E+02
    0.726750066516791104E+01   -0.433378662247042641E+02
    0.135116548318898229E+02   -0.433368889060328542E+02
    0.135116548318898229E+02   -0.433368889060328542E+02
    0.727701187133789062E+01   -0.433365305091067725E+02
    0.727701187133789062E+01   -0.433365305091067725E+02
    0.134992447352743259E+02   -0.433351507761438626E+02
    0.134872421494611086E+02   -0.433334763141350265E+02
    0.134872421494611086E+02   -0.433334763141350265E+02
    0.134816572015306253E+02   -0.433326993768410702E+02
    0.730546554347686961E+01   -0.433325588950661569E+02
    0.730546554347686961E+01   -0.433325588950661569E+02
    0.732340468764148866E+01   -0.433300736430623843E+02
    0.134438738729737395E+02   -0.433274801037115935E+02
    0.133660161987193966E+02   -0.433169276630104463E+02
    0.133635794096402982E+02   -0.433166017951420201E+02
    0.133635794096402982E+02   -0.433166017951420201E+02
    0.742576118617918812E+01   -0.433161704284498796E+02
    0.742576118617918812E+01   -0.433161704284498796E+02
    0.133527212969077755E+02   -0.433151530053055396E+02
    0.133467342099608768E+02   -0.433143564219932315E+02
    0.133467342099608768E+02   -0.433143564219932315E+02
    0.745894845709154275E+01   -0.433117637712079429E+02
    0.132823533338542319E+02   -0.433058924643369920E+02
    0.132454671680462805E+02   -0.433011271979259149E+02
    0.132454671680462805E+02   -0.433011271979259149E+02
    0.132422253262364329E+02   -0.433007113164175124E+02
    0.132286769125391412E+02   -0.432989783688406433E+02
    0.132286769125391412E+02   -0.432989783688406433E+02
    0.131982764041900893E+02   -0.432951199687413322E+02
    0.131982764041900893E+02   -0.432951199687413322E+02
    0.760821722372779252E+01   -0.432925564203657132E+02
    0.764640706474178522E+01   -0.432878033711997645E+02
    0.131358347333094443E+02   -0.432873253759314878E+02
    0.131358347333094443E+02   -0.432873253759314878E+02
    0.131316553382831618E+02   -0.432868099269194317E+02
    0.131316553382831618E+02   -0.432868099269194317E+02
    0.131022497116990255E+02   -0.432832055220207224E+02
    0.131022497116990255E+02   -0.432832055220207224E+02
    0.131002803265839347E+02   -0.432829655142191001E+02
    0.131002803265839347E+02   -0.432829655142191001E+02
    0.768735180725124589E+01   -0.432827803544756122E+02
    0.768858707921063278E+01   -0.432826299861897326E+02
    0.769411787292413152E+01   -0.432819575707925139E+02
    0.769411787292413152E+01   -0.432819575707925139E+02
    0.130816698074340820E+02   -0.432807060787951556E+02
    0.130816698074340820E+02   -0.432807060787951556E+02
    0.771729566246745335E+01   -0.432791546642115748E+02
    0.771729566246745335E+01   -0.432791546642115748E+02
    0.130681991577148438E+02   -0.432790803796889136E+02
    0.772750337467596271E+01   -0.432779279060770463E+02
    0.130489022683110605E+02   -0.432767657705622355E+02
    0.130316313076834476E+02   -0.432747083761961662E+02
    0.130288763908745207E+02   -0.432743814394545865E+02
    0.130158625929293965E+02   -0.432728416584501119E+02
    0.130115083469667638E+02   -0.432723281694949407E+02
    0.130115083469667638E+02   -0.432723281694949407E+02
    0.778617068169496473E+01   -0.432709682122573156E+02
    0.778617068169496473E+01   -0.432709682122573156E+02
    0.129786018037207054E+02   -0.432684751435860875E+02
    0.129680338514989568E+02   -0.432672480797773957E+02
    0.129622497427109611E+02   -0.432665786046718210E+02
    0.129523470658473556E+02   -0.432654359257560586E+02
    0.129523470658473556E+02   -0.432654359257560586E+02
    0.129470229148864746E+02   -0.432648233911937936E+02
    0.129378729136785768E+02   -0.432637736788985521E+02
    0.785106420516967773E+01   -0.432634503150118022E+02
    0.786755598354664709E+01   -0.432615699461593977E+02
    0.787138905575154535E+01   -0.432611346576781628E+02
    0.129011522998000814E+02   -0.432595988920649717E+02
    0.789403879126338559E+01   -0.432585760214837762E+02
    0.128868995437147351E+02   -0.432579948348667003E+02
    0.128669901832803824E+02   -0.432557694660486192E+02
    0.792863533348680605E+01   -0.432547123713892958E+02
    0.792869955712597108E+01   -0.432547052491495094E+02
    0.792869955712597108E+01   -0.432547052491495094E+02
    0.128490418746486661E+02   -0.432537785821266141E+02
    0.794836040282737333E+01   -0.432525336366461133E+02
    0.794836040282737333E+01   -0.432525336366461133E+02
    0.797112039250194027E+01   -0.432500414360263221E+02
    0.797112039250194027E+01   -0.432500414360263221E+02
    0.128028699639870798E+02   -0.432487236582474708E+02
    0.127996059910869739E+02   -0.432483699474025229E+02
    0.127712288168138652E+02   -0.432453149667491417E+02
    0.127628445625305176E+02   -0.432444192841166952E+02
    0.127621940773163285E+02   -0.432443499255756549E+02
    0.127621940773163285E+02   -0.432443499255756549E+02
    0.127505912425665908E+02   -0.432431159623175034E+02
    0.804757285234838449E+01   -0.432418406162806335E+02
    0.806727355074547070E+01   -0.432397700044783235E+02
    0.806727355074547070E+01   -0.432397700044783235E+02
    0.807261976329368203E+01   -0.432392111118649467E+02
    0.807784606095022895E+01   -0.432386659983837234E+02
    0.127054274541459744E+02   -0.432383704718849700E+02
    0.127054274541459744E+02   -0.432383704718849700E+02
    0.127032370158125900E+02   -0.432381426500134722E+02
    0.126781857867112588E+02   -0.432355524907815649E+02
    0.811428930318881392E+01   -0.432348990619510545E+02
    0.814437866210937500E+01   -0.432318339345769331E+02
    0.126278583276436809E+02   -0.432304342648679665E+02
    0.126278583276436809E+02   -0.432304342648679665E+02
    0.816824173647797025E+01   -0.432294320312584048E+02
    0.816824173647797025E+01   -0.432294320312584048E+02
    0.818496337877050983E+01   -0.432277642079511750E+02
    0.819170475953400512E+01   -0.432270953788271086E+02
    0.823406833534456162E+01   -0.432229391891689687E+02
    0.125376596691374100E+02   -0.432215463922290581E+02
    0.125367004372504969E+02   -0.432214538401780288E+02
    0.831038099135044916E+01   -0.432156561072182512E+02
    0.831038099135044916E+01   -0.432156561072182512E+02
    0.124668760945198951E+02   -0.432148280019027311E+02
    0.832707169419737525E+01   -0.432140981163877100E+02
    0.832900679149645740E+01   -0.432139182960195782E+02
    0.124560134656477928E+02   -0.432138169355743216E+02
    0.833767652511596680E+01   -0.432131147231933497E+02
    0.835141674366378339E+01   -0.432118481097602327E+02
    0.124343801210014764E+02   -0.432118191753822316E+02
    0.124291150117777267E+02   -0.432113361483418785E+02
    0.838600792700604813E+01   -0.432086970099679419E+02
    0.123986155902685589E+02   -0.432085626400621550E+02
    0.123866894764788693E+02   -0.432074895063046611E+02
    0.840159378819080160E+01   -0.432072948049387193E+02
    0.123666405755858921E+02   -0.432056998930910225E+02
    0.845239535346516746E+01   -0.432028002502272841E+02
    0.845357095269417513E+01   -0.432026976165654659E+02
    0.123324402279405199E+02   -0.432026888328548822E+02
    0.123324402279405199E+02   -0.432026888328548822E+02
    0.845599174499511719E+01   -0.432024864693591226E+02
    0.123232740337589295E+02   -0.432018907684897400E+02
    0.847592584527928139E+01   -0.432007577967352461E+02
    0.123060771459326421E+02   -0.432004037039782034E+02
    0.122920274734497070E+02   -0.431991986658472626E+02
    0.850902448249482291E+01   -0.431979269982637462E+02
    0.122655916364959872E+02   -0.431969553494351430E+02
    0.852668285369873047E+01   -0.431964369124845149E+02
    0.855450548860588711E+01   -0.431941175959824903E+02
    0.122105812129650459E+02   -0.431923880334896353E+02
    0.122036423474332789E+02   -0.431918215964517103E+02
    0.861424102034679429E+01   -0.431892556780674752E+02
    0.861424102034679429E+01   -0.431892556780674752E+02
    0.121642247857431123E+02   -0.431886449550834399E+02
    0.121616561041750124E+02   -0.431884403729435391E+02
    0.121601575969933151E+02   -0.431883211617638381E+02
    0.863387388625401186E+01   -0.431876928051381128E+02
    0.863395974024297708E+01   -0.431876860088281944E+02
    0.121443660915457130E+02   -0.431870710388114247E+02
    0.864874941017148657E+01   -0.431865201900215183E+02
    0.121291056541402789E+02   -0.431858736194614465E+02
    0.869268116533156743E+01   -0.431831152449229947E+02
    0.120840420280591054E+02   -0.431823988395568534E+02
    0.870534194831354746E+01   -0.431821500881652511E+02
    0.120743534647964239E+02   -0.431816637064246507E+02
    0.120574226558338715E+02   -0.431803891983563020E+02
    0.873343540944967067E+01   -0.431800342284228620E+02
    0.873789585619164555E+01   -0.431797015568745906E+02
    0.873823466624821954E+01   -0.431796763241381427E+02
    0.120476975388744769E+02   -0.431796629491031752E+02
    0.120470538046779740E+02   -0.431796150267041341E+02
    0.120470538046779740E+02   -0.431796150267041341E+02
    0.875290819997373859E+01   -0.431785884752799163E+02
    0.876712360978020655E+01   -0.431775438302976085E+02
    0.120088458061218262E+02   -0.431768040556468335E+02
    0.878141075345351574E+01   -0.431765030762746491E+02
    0.120030045509338379E+02   -0.431763801025033160E+02
    0.879328504493009788E+01   -0.431756450772506639E+02
    0.119791030883789062E+02   -0.431746613505820633E+02
    0.119567986562308306E+02   -0.431730806293824969E+02
    0.884212327569526302E+01   -0.431721828945920123E+02
    0.884724760726010473E+01   -0.431718258482264545E+02
    0.119285749553170959E+02   -0.431711124950340093E+02
    0.885961191487917610E+01   -0.431709692097154303E+02
    0.886994337267262800E+01   -0.431702586893060456E+02
    0.119158027685955670E+02   -0.431702336283142145E+02
    0.119137404447163071E+02   -0.431700924061365754E+02
    0.119114483182436182E+02   -0.431699356722907979E+02
    0.119017958641052246E+02   -0.431692782390252034E+02
    0.889093966493519972E+01   -0.431688295210808519E+02
    0.118924200799914193E+02   -0.431686436639919791E+02
    0.118831605090054016E+02   -0.431680208370318397E+02
    0.890874673256013061E+01   -0.431676329827910337E+02
    0.891818011973688840E+01   -0.431670048921955427E+02
    0.892682419650368253E+01   -0.431664328711160792E+02
    0.892902757562236715E+01   -0.431662876004552771E+02
    0.118434313479432110E+02   -0.431653923239242445E+02
    0.118321419713153269E+02   -0.431646583689954610E+02
    0.895981250400916274E+01   -0.431642807736331946E+02
    0.896039943932231253E+01   -0.431642429264316689E+02
    0.118252319177350369E+02   -0.431642119560646051E+02
    0.118153479819149982E+02   -0.431635771550314971E+02
    0.897089420557716011E+01   -0.431635688118178678E+02
    0.898259878158569336E+01   -0.431628228332617851E+02
    0.117795251218880939E+02   -0.431613132531335424E+02
    0.901424792561344823E+01   -0.431608365815591171E+02
    0.901459114539974138E+01   -0.431608152886713938E+02
    0.117545414457993100E+02   -0.431597685378816820E+02
    0.904244398008876615E+01   -0.431591050069225588E+02
    0.117344101627396125E+02   -0.431585442761450011E+02
    0.117264798355810953E+02   -0.431580670091602343E+02
    0.117190680129820652E+02   -0.431576235056298430E+02
    0.907737061715126714E+01   -0.431570096990219625E+02
    0.117032068878737867E+02   -0.431566827241019624E+02
    0.909080735070345192E+01   -0.431562182282287523E+02
    0.909445240683561096E+01   -0.431560049225637528E+02
    0.909917362960784182E+01   -0.431557295292475374E+02
    0.116833044304223286E+02   -0.431555182514459545E+02
    0.911340594228975576E+01   -0.431549054146437072E+02
    0.116708650024325138E+02   -0.431547994851730508E+02
    0.913116993045978198E+01   -0.431538895888153533E+02
    0.116523157552910916E+02   -0.431537406190035284E+02
    0.116506633971888078E+02   -0.431536470467658120E+02
    0.915696790089373813E+01   -0.431524396289824779E+02
    0.916168693581862037E+01   -0.431521776386291407E+02
    0.116237316108930884E+02   -0.431521392337700291E+02
    0.917056376037560916E+01   -0.431516875324977107E+02
    0.918449400362069746E+01   -0.431509255660734041E+02
    0.115972757339477539E+02   -0.431506898446045710E+02
    0.919147183404342805E+01   -0.431505471702984948E+02
    0.919201076475897771E+01   -0.431505180361580258E+02
    0.919651943542539740E+01   -0.431502748132742795E+02
    0.115878474152600131E+02   -0.431501809251303854E+02
    0.115862954009632126E+02   -0.431500975343199826E+02
    0.921630414704015521E+01   -0.431492183297464180E+02
    0.923329450906219940E+01   -0.431483251201426441E+02
    0.923884749276579242E+01   -0.431480360078164438E+02
    0.115459022767457569E+02   -0.431479653052315228E+02
    0.115413363512923990E+02   -0.431477289028291224E+02
    0.115394165657628758E+02   -0.431476297854069344E+02
    0.926267593066525485E+01   -0.431468111489271351E+02
    0.927060526590560130E+01   -0.431464092213180450E+02
    0.927325606405557323E+01   -0.431462754868650720E+02
    0.115114526546518832E+02   -0.431462048272309744E+02
    0.114955752449172497E+02   -0.431454114233547514E+02
    0.929897015459615872E+01   -0.431449946056290585E+02
    0.114821971248439247E+02   -0.431447517166514345E+02
    0.932292127556283745E+01   -0.431438283067782677E+02
    0.933060353907167261E+01   -0.431434596871324416E+02
    0.933561843062733843E+01   -0.431432204892334070E+02
    0.114364209211006660E+02   -0.431425553107684436E+02
    0.114286335491863511E+02   -0.431421910470282270E+02
    0.114236208152160597E+02   -0.431419580140130989E+02
    0.114219818551339074E+02   -0.431418820669891900E+02
    0.113914638706135989E+02   -0.431404899887358297E+02
    0.113877982932174788E+02   -0.431403256026821964E+02
    0.113874707199030141E+02   -0.431403109417988730E+02
    0.940363131669932351E+01   -0.431400881967939469E+02
    0.113823229890597855E+02   -0.431400811839395217E+02
    0.941798838795688731E+01   -0.431394535988433816E+02
    0.113486427339575826E+02   -0.431386073624926922E+02
    0.113460498398737926E+02   -0.431384960156687427E+02
    0.113354072421370944E+02   -0.431380421592331018E+02
    0.945485118128627100E+01   -0.431378667062489001E+02
    0.113265070329086814E+02   -0.431376665209618935E+02
    0.948060802944974057E+01   -0.431367941992350055E+02
    0.112981440584460380E+02   -0.431364932260111900E+02
    0.112954488311739496E+02   -0.431363836156353599E+02
    0.112807598308125510E+02   -0.431357919841409938E+02
    0.952020871312088879E+01   -0.431352034738539061E+02
    0.952167289230404990E+01   -0.431351460118783763E+02
    0.112577381507017886E+02   -0.431348842694867827E+02
    0.112221313714757045E+02   -0.431335273112182804E+02
    0.112138756162382904E+02   -0.431332208357790918E+02
    0.958270400960630298E+01   -0.431328366532474874E+02
    0.111948730978825974E+02   -0.431325270665656149E+02
    0.111823860672177471E+02   -0.431320800206890311E+02
    0.960581673141435033E+01   -0.431320058479859014E+02
    0.111789979153591243E+02   -0.431319599323100888E+02
    0.960743885451118373E+01   -0.431319484422411321E+02
    0.111771184191081385E+02   -0.431318935389143263E+02
    0.111652624401123273E+02   -0.431314783893222966E+02
    0.962336003211312097E+01   -0.431313912879368786E+02
    0.111558286409563649E+02   -0.431311525738870998E+02
    0.111455288485555819E+02   -0.431308014227820848E+02
    0.967226976261244786E+01   -0.431297510587623449E+02
    0.967579483749491764E+01   -0.431296370012188746E+02
    0.968650863500618620E+01   -0.431292937773452039E+02
    0.110860100772760966E+02   -0.431288657467694989E+02
    0.110839030323394141E+02   -0.431288001428109808E+02
    0.971325787271015528E+01   -0.431284593945353905E+02
    0.971391562200521719E+01   -0.431284392831189720E+02
    0.110674714609953000E+02   -0.431282953910649454E+02
    0.972232540715581095E+01   -0.431281838603430288E+02
    0.110404026525822339E+02   -0.431274903741365492E+02
    0.974989785377347395E+01   -0.431273687500912857E+02
    0.110276934068078294E+02   -0.431271237804505603E+02
    0.110136559600417812E+02   -0.431267273230217256E+02
    0.110005880697499325E+02   -0.431263662183412038E+02
    0.978568145993306260E+01   -0.431263619074264497E+02
    0.109909341924028556E+02   -0.431261043884396926E+02
    0.109894695567970082E+02   -0.431260650313839804E+02
    0.980851236893516187E+01   -0.431257496245719167E+02
    0.981133042312184500E+01   -0.431256756758619417E+02
    0.981959687808787152E+01   -0.431254608170429421E+02
    0.982238978894614689E+01   -0.431253889196524511E+02
    0.983327724051790675E+01   -0.431251119972356562E+02
    0.109435869850638969E+02   -0.431248809739861656E+02
    0.986515593333582785E+01   -0.431243318373293931E+02
    0.109102250043274278E+02   -0.431240795106592003E+02
    0.109075824945636466E+02   -0.431240181696766598E+02
    0.989261770387798300E+01   -0.431236964376138374E+02
    0.108924508094787598E+02   -0.431236729670149828E+02
    0.989907486113349400E+01   -0.431235519623791816E+02
    0.990148978853492068E+01   -0.431234984118193623E+02
    0.991482305899814698E+01   -0.431232074734979278E+02
    0.108647912530432507E+02   -0.431230685938038576E+02
    0.108612224787011105E+02   -0.431229931221031890E+02
    0.108517983053211342E+02   -0.431227965767116359E+02
    0.108286589864760376E+02   -0.431223309494512179E+02
    0.997448112506662987E+01   -0.431220036827840616E+02
    0.998021036865355882E+01   -0.431218965060679977E+02
    0.108056622619490792E+02   -0.431218920635861451E+02
    0.108020963010250082E+02   -0.431218261394824935E+02
    0.107965900191394066E+02   -0.431217254685375124E+02
    0.107955894436125881E+02   -0.431217073215776239E+02
    0.999505463459932919E+01   -0.431216256864860270E+02
    0.107841025880532850E+02   -0.431215022174004687E+02
    0.100105150213944487E+02   -0.431213541680994794E+02
    0.100337427653178786E+02   -0.431209664571976674E+02
    0.100377846066312078E+02   -0.431209014718659773E+02
    0.107315210123478462E+02   -0.431206391426311484E+02
    0.100685205190908160E+02   -0.431204313460838478E+02
    0.107165309584002237E+02   -0.431204158859651088E+02
    0.107113709422501895E+02   -0.431203413739041252E+02
    0.107008218765258789E+02   -0.431201927710892718E+02
    0.100925830376543058E+02   -0.431200929624399905E+02
    0.100928458761196467E+02   -0.431200894100820378E+02
    0.101016639247326996E+02   -0.431199720326353173E+02
    0.101242696760494102E+02   -0.431196871095185159E+02
    0.106569546771550243E+02   -0.431196285311503900E+02
    0.106429987961870918E+02   -0.431194671811106431E+02
    0.106418761642876394E+02   -0.431194545827440052E+02
    0.101535156356821687E+02   -0.431193526133429543E+02
    0.101584095593752544E+02   -0.431193003990962964E+02
    0.101642783558240826E+02   -0.431192392049328177E+02
    0.101750939195441124E+02   -0.431191304907813304E+02
    0.106090335440981107E+02   -0.431191111161862821E+02
    0.101885396553564220E+02   -0.431190026788351943E+02
    0.101986076016918723E+02   -0.431189123018732658E+02
    0.101999010352088604E+02   -0.431189010217467938E+02
    0.102025550583523827E+02   -0.431188781115450013E+02
    0.102103724150141950E+02   -0.431188124719534684E+02
    0.102154713039596317E+02   -0.431187711401945322E+02
    0.102627059731425092E+02   -0.431184438734980446E+02
    0.102710789677217633E+02   -0.431183963370362875E+02
    0.102843695529211203E+02   -0.431183273599044909E+02
    0.102940896528046011E+02   -0.431182819458099189E+02
    0.104140824993860619E+02   -0.431180715212373258E+02
    0.103424806653262582E+02   -0.431181191253487484E+02
    0.103380287852791533E+02   -0.431181297032536008E+02
    0.103755835792264790E+02   -0.431180684424516940E+02
    0.104042572158076876E+02   -0.431180643966537644E+02
    0.103495566140058806E+02   -0.431181041478489320E+02
    0.104594833619872656E+02   -0.431181608572326240E+02
    0.104411128261170720E+02   -0.431181135366029906E+02
    0.104395043696544683E+02   -0.431181101164280705E+02
    0.104339857261624651E+02   -0.431180992667137843E+02
    0.104524638471228410E+02   -0.431181409829073132E+02
